FANN_FLO_2.1
num_layers=4
learning_rate=0.700000
connection_rate=1.000000
network_type=0
learning_momentum=0.000000
training_algorithm=2
train_error_function=1
train_stop_function=0
cascade_output_change_fraction=0.010000
quickprop_decay=-0.000100
quickprop_mu=1.750000
rprop_increase_factor=1.200000
rprop_decrease_factor=0.500000
rprop_delta_min=0.000000
rprop_delta_max=50.000000
rprop_delta_zero=0.100000
cascade_output_stagnation_epochs=12
cascade_candidate_change_fraction=0.010000
cascade_candidate_stagnation_epochs=12
cascade_max_out_epochs=150
cascade_min_out_epochs=50
cascade_max_cand_epochs=150
cascade_min_cand_epochs=50
cascade_num_candidate_groups=2
bit_fail_limit=3.49999999999999980000e-001
cascade_candidate_limit=1.00000000000000000000e+003
cascade_weight_multiplier=4.00000000000000020000e-001
cascade_activation_functions_count=10
cascade_activation_functions=3 5 7 8 10 11 14 15 16 17 
cascade_activation_steepnesses_count=4
cascade_activation_steepnesses=2.50000000000000000000e-001 5.00000000000000000000e-001 7.50000000000000000000e-001 1.00000000000000000000e+000 
layer_sizes=11 23 16 4 
scale_included=0
neurons (num_inputs, activation_function, activation_steepness)=(0, 0, 0.00000000000000000000e+000) (0, 0, 0.00000000000000000000e+000) (0, 0, 0.00000000000000000000e+000) (0, 0, 0.00000000000000000000e+000) (0, 0, 0.00000000000000000000e+000) (0, 0, 0.00000000000000000000e+000) (0, 0, 0.00000000000000000000e+000) (0, 0, 0.00000000000000000000e+000) (0, 0, 0.00000000000000000000e+000) (0, 0, 0.00000000000000000000e+000) (0, 0, 0.00000000000000000000e+000) (11, 5, 5.00000000000000000000e-001) (11, 5, 5.00000000000000000000e-001) (11, 5, 5.00000000000000000000e-001) (11, 5, 5.00000000000000000000e-001) (11, 5, 5.00000000000000000000e-001) (11, 5, 5.00000000000000000000e-001) (11, 5, 5.00000000000000000000e-001) (11, 5, 5.00000000000000000000e-001) (11, 5, 5.00000000000000000000e-001) (11, 5, 5.00000000000000000000e-001) (11, 5, 5.00000000000000000000e-001) (11, 5, 5.00000000000000000000e-001) (11, 5, 5.00000000000000000000e-001) (11, 5, 5.00000000000000000000e-001) (11, 5, 5.00000000000000000000e-001) (11, 5, 5.00000000000000000000e-001) (11, 5, 5.00000000000000000000e-001) (11, 5, 5.00000000000000000000e-001) (11, 5, 5.00000000000000000000e-001) (11, 5, 5.00000000000000000000e-001) (11, 5, 5.00000000000000000000e-001) (11, 5, 5.00000000000000000000e-001) (0, 5, 0.00000000000000000000e+000) (23, 5, 5.00000000000000000000e-001) (23, 5, 5.00000000000000000000e-001) (23, 5, 5.00000000000000000000e-001) (23, 5, 5.00000000000000000000e-001) (23, 5, 5.00000000000000000000e-001) (23, 5, 5.00000000000000000000e-001) (23, 5, 5.00000000000000000000e-001) (23, 5, 5.00000000000000000000e-001) (23, 5, 5.00000000000000000000e-001) (23, 5, 5.00000000000000000000e-001) (23, 5, 5.00000000000000000000e-001) (23, 5, 5.00000000000000000000e-001) (23, 5, 5.00000000000000000000e-001) (23, 5, 5.00000000000000000000e-001) (23, 5, 5.00000000000000000000e-001) (0, 5, 0.00000000000000000000e+000) (16, 5, 5.00000000000000000000e-001) (16, 5, 5.00000000000000000000e-001) (16, 5, 5.00000000000000000000e-001) (0, 5, 0.00000000000000000000e+000) 
connections (connected_to_neuron, weight)=(0, 5.08928691845407940000e+000) (1, -1.50000000000000000000e+003) (2, -1.50000000000000000000e+003) (3, -1.50000000000000000000e+003) (4, 1.50000000000000000000e+003) (5, 1.50000000000000000000e+003) (6, -1.50000000000000000000e+003) (7, -1.50000000000000000000e+003) (8, -1.50000000000000000000e+003) (9, 1.50000000000000000000e+003) (10, 5.08916954014471030000e+000) (0, 2.43827836336850960000e+002) (1, 1.50000000000000000000e+003) (2, 1.50000000000000000000e+003) (3, 1.50000000000000000000e+003) (4, -1.50000000000000000000e+003) (5, -1.50000000000000000000e+003) (6, 1.50000000000000000000e+003) (7, 1.50000000000000000000e+003) (8, 1.50000000000000000000e+003) (9, -1.50000000000000000000e+003) (10, 2.43827612269719910000e+002) (0, 6.86987675316644970000e+000) (1, 1.49999987999999530000e+003) (2, 1.49999987999999530000e+003) (3, -1.49991109199268410000e+003) (4, -1.50000000000000000000e+003) (5, -1.49999957519999840000e+003) (6, 1.49999987999999530000e+003) (7, 1.49999987999999530000e+003) (8, 1.49999987999999530000e+003) (9, -1.50000000000000000000e+003) (10, 6.86989412484994770000e+000) (0, 5.08928275528209980000e+000) (1, -1.50000000000000000000e+003) (2, -1.50000000000000000000e+003) (3, -1.50000000000000000000e+003) (4, 1.50000000000000000000e+003) (5, 1.50000000000000000000e+003) (6, -1.50000000000000000000e+003) (7, -1.50000000000000000000e+003) (8, -1.50000000000000000000e+003) (9, 1.50000000000000000000e+003) (10, 5.08901051502520920000e+000) (0, -6.13931052542561330000e+000) (1, 1.50000000000000000000e+003) (2, 1.50000000000000000000e+003) (3, 1.50000000000000000000e+003) (4, -1.50000000000000000000e+003) (5, -1.50000000000000000000e+003) (6, 1.50000000000000000000e+003) (7, 1.50000000000000000000e+003) (8, 1.50000000000000000000e+003) (9, -1.50000000000000000000e+003) (10, -6.13928786933779150000e+000) (0, 2.36966140280302050000e+000) (1, 1.50000000000000000000e+003) (2, 1.50000000000000000000e+003) (3, -1.50000000000000000000e+003) (4, -1.50000000000000000000e+003) (5, -1.50000000000000000000e+003) (6, 1.50000000000000000000e+003) (7, 1.50000000000000000000e+003) (8, 1.50000000000000000000e+003) (9, -1.50000000000000000000e+003) (10, 2.36949488097335110000e+000) (0, 8.35230391645122340000e+000) (1, 1.50000000000000000000e+003) (2, 1.50000000000000000000e+003) (3, 1.49985713701062470000e+003) (4, -1.50000000000000000000e+003) (5, -1.50000000000000000000e+003) (6, 1.50000000000000000000e+003) (7, 1.50000000000000000000e+003) (8, 1.50000000000000000000e+003) (9, -1.50000000000000000000e+003) (10, 8.35227267254335360000e+000) (0, 1.32382306138127050000e+001) (1, 1.50000000000000000000e+003) (2, 1.50000000000000000000e+003) (3, -1.50000000000000000000e+003) (4, -1.50000000000000000000e+003) (5, -1.50000000000000000000e+003) (6, 1.50000000000000000000e+003) (7, 1.50000000000000000000e+003) (8, 1.50000000000000000000e+003) (9, -1.50000000000000000000e+003) (10, 1.32382256511803310000e+001) (0, 6.86987545593596670000e+000) (1, 1.49999987999999530000e+003) (2, 1.49999987999999530000e+003) (3, -1.49991109199268410000e+003) (4, -1.50000000000000000000e+003) (5, -1.49999957519999840000e+003) (6, 1.49999987999999530000e+003) (7, 1.49999987999999530000e+003) (8, 1.49999987999999530000e+003) (9, -1.50000000000000000000e+003) (10, 6.86975339154609620000e+000) (0, 1.91834501853288300000e+001) (1, 1.50000000000000000000e+003) (2, 1.50000000000000000000e+003) (3, 1.50000000000000000000e+003) (4, -1.50000000000000000000e+003) (5, -1.50000000000000000000e+003) (6, 1.50000000000000000000e+003) (7, 1.50000000000000000000e+003) (8, 1.50000000000000000000e+003) (9, -1.50000000000000000000e+003) (10, 1.91834942053307810000e+001) (0, 6.86989598017548350000e+000) (1, 1.49999987999999530000e+003) (2, 1.49999987999999530000e+003) (3, -1.49991109199268410000e+003) (4, -1.50000000000000000000e+003) (5, -1.49999957519999840000e+003) (6, 1.49999987999999530000e+003) (7, 1.49999987999999530000e+003) (8, 1.49999987999999530000e+003) (9, -1.50000000000000000000e+003) (10, 6.86983577006917120000e+000) (0, 2.89493137138150660000e+000) (1, 1.50000000000000000000e+003) (2, 1.50000000000000000000e+003) (3, 1.50000000000000000000e+003) (4, -1.50000000000000000000e+003) (5, 1.49996536214094410000e+003) (6, 1.50000000000000000000e+003) (7, 1.50000000000000000000e+003) (8, 1.50000000000000000000e+003) (9, -1.50000000000000000000e+003) (10, 2.89471631439618090000e+000) (0, 1.56386104280193850000e+002) (1, 1.50000000000000000000e+003) (2, 1.50000000000000000000e+003) (3, 1.49982454292966850000e+003) (4, -1.50000000000000000000e+003) (5, -1.50000000000000000000e+003) (6, 1.50000000000000000000e+003) (7, 1.50000000000000000000e+003) (8, 1.50000000000000000000e+003) (9, -1.50000000000000000000e+003) (10, 1.56386112551233250000e+002) (0, 4.43099232394448220000e+002) (1, 1.50000000000000000000e+003) (2, 1.50000000000000000000e+003) (3, -1.50000000000000000000e+003) (4, -1.50000000000000000000e+003) (5, -1.50000000000000000000e+003) (6, 1.50000000000000000000e+003) (7, 1.50000000000000000000e+003) (8, 1.50000000000000000000e+003) (9, -1.50000000000000000000e+003) (10, 4.43099199395780370000e+002) (0, -3.85647110728240990000e+002) (1, 1.50000000000000000000e+003) (2, 1.50000000000000000000e+003) (3, -1.50000000000000000000e+003) (4, -1.50000000000000000000e+003) (5, -1.50000000000000000000e+003) (6, 1.50000000000000000000e+003) (7, 1.50000000000000000000e+003) (8, 1.50000000000000000000e+003) (9, -1.50000000000000000000e+003) (10, -3.85647293158624560000e+002) (0, 1.96330827331971570000e-001) (1, 1.50000000000000000000e+003) (2, 1.50000000000000000000e+003) (3, 1.50000000000000000000e+003) (4, -1.50000000000000000000e+003) (5, -1.50000000000000000000e+003) (6, 1.50000000000000000000e+003) (7, 1.50000000000000000000e+003) (8, 1.50000000000000000000e+003) (9, -1.50000000000000000000e+003) (10, 1.96251470639149240000e-001) (0, 4.43099246221407950000e+002) (1, 1.50000000000000000000e+003) (2, 1.50000000000000000000e+003) (3, -1.50000000000000000000e+003) (4, -1.50000000000000000000e+003) (5, -1.50000000000000000000e+003) (6, 1.50000000000000000000e+003) (7, 1.50000000000000000000e+003) (8, 1.50000000000000000000e+003) (9, -1.50000000000000000000e+003) (10, 4.43099346052062970000e+002) (0, 1.32382159672954760000e+001) (1, 1.50000000000000000000e+003) (2, 1.50000000000000000000e+003) (3, -1.50000000000000000000e+003) (4, -1.50000000000000000000e+003) (5, -1.50000000000000000000e+003) (6, 1.50000000000000000000e+003) (7, 1.50000000000000000000e+003) (8, 1.50000000000000000000e+003) (9, -1.50000000000000000000e+003) (10, 1.32381556214125190000e+001) (0, 3.03782185640173230000e+000) (1, 1.50000000000000000000e+003) (2, 1.50000000000000000000e+003) (3, -1.50000000000000000000e+003) (4, -1.50000000000000000000e+003) (5, -1.50000000000000000000e+003) (6, 1.50000000000000000000e+003) (7, 1.50000000000000000000e+003) (8, 1.50000000000000000000e+003) (9, -1.50000000000000000000e+003) (10, 3.03776844914707800000e+000) (0, 5.12654047135121700000e+000) (1, -1.50000000000000000000e+003) (2, -1.50000000000000000000e+003) (3, -1.49982120238483940000e+003) (4, 1.50000000000000000000e+003) (5, 1.50000000000000000000e+003) (6, -1.50000000000000000000e+003) (7, -1.50000000000000000000e+003) (8, -1.50000000000000000000e+003) (9, 1.50000000000000000000e+003) (10, 5.12640504256937120000e+000) (0, 8.35230917069670300000e+000) (1, 1.50000000000000000000e+003) (2, 1.50000000000000000000e+003) (3, 1.49985713701062470000e+003) (4, -1.50000000000000000000e+003) (5, -1.50000000000000000000e+003) (6, 1.50000000000000000000e+003) (7, 1.50000000000000000000e+003) (8, 1.50000000000000000000e+003) (9, -1.50000000000000000000e+003) (10, 8.35214833048043560000e+000) (0, 1.91834760090630070000e+001) (1, 1.50000000000000000000e+003) (2, 1.50000000000000000000e+003) (3, 1.50000000000000000000e+003) (4, -1.50000000000000000000e+003) (5, -1.50000000000000000000e+003) (6, 1.50000000000000000000e+003) (7, 1.50000000000000000000e+003) (8, 1.50000000000000000000e+003) (9, -1.50000000000000000000e+003) (10, 1.91835274704851240000e+001) (11, 1.42347748850738660000e+000) (12, 1.02918714854128520000e+001) (13, 1.00695431632280960000e+000) (14, 1.42353709024905490000e+000) (15, 4.76543460760801100000e+000) (16, 4.14137395682765190000e+001) (17, 4.24186319078599270000e+000) (18, -3.32999028788586360000e+000) (19, 1.00701656780816990000e+000) (20, 7.78969488099121940000e+000) (21, 1.00697790762948140000e+000) (22, 5.61760664437672470000e+000) (23, 3.72074972800323260000e-001) (24, -4.12097771318121180000e+000) (25, 3.61606080801563890000e+000) (26, 5.50432562854484430000e+000) (27, -4.12097701933134180000e+000) (28, -3.33000501988831890000e+000) (29, 3.65584136914880760000e+000) (30, 7.56616859551523110000e+000) (31, 4.24184033356159860000e+000) (32, 7.78961556955348920000e+000) (33, 4.60368948259360260000e-001) (11, -4.03609878392406500000e+001) (12, 2.44217479020230850000e+002) (13, 1.84104293790369270000e+001) (14, -4.03610839039163950000e+001) (15, 2.12258049127712720000e+002) (16, -5.71884173395984130000e+002) (17, 1.87662715456554750000e+000) (18, 5.19443483870116380000e+000) (19, 1.84102705952693530000e+001) (20, 4.12740512219558210000e+000) (21, 1.84103813768669940000e+001) (22, 8.47972678835263310000e+001) (23, 9.28119080711971730000e+000) (24, -4.02676052486564370000e+000) (25, 2.33480902537046160000e+000) (26, 2.62554832645716160000e+001) (27, -4.02673543019196960000e+000) (28, 5.19444415555761290000e+000) (29, 7.11386090649621480000e+000) (30, -8.19492358941617560000e+000) (31, 1.87659453299603160000e+000) (32, 4.12746092780140740000e+000) (33, 5.23221440917128170000e+000) (11, -7.02051032658540830000e+000) (12, 3.13787142407170490000e+000) (13, 5.38825760865959470000e+001) (14, -7.02050720923774830000e+000) (15, 1.36376334656997170000e+000) (16, 7.62222029507604700000e+002) (17, 3.27280890504216870000e+000) (18, 2.40547924241559130000e+000) (19, 5.38825436259224090000e+001) (20, 3.56907630406382680000e+002) (21, 5.38825760865959470000e+001) (22, 1.35198110002248750000e+000) (23, 1.77188298783377340000e+000) (24, 4.75796122570473830000e+000) (25, 2.64692553601349620000e+000) (26, 8.05627818663275430000e+002) (27, 4.75789794348539450000e+000) (28, 2.40545679748333540000e+000) (29, 3.37475278728690230000e+000) (30, -3.93809685228891840000e+001) (31, 3.27275294356759620000e+000) (32, 3.56907624392912850000e+002) (33, 3.55875126744907840000e+000) (11, 2.02444888301020850000e+000) (12, 5.64366426407822000000e+000) (13, 1.41261866383365720000e+001) (14, 2.02455043825411000000e+000) (15, 7.87767656078944610000e-001) (16, -6.84850545500370340000e+000) (17, -1.96020380006618460000e+000) (18, -1.22288459345020650000e+001) (19, 1.41262419260611070000e+001) (20, 8.51467016099147680000e+000) (21, 1.41262124721261220000e+001) (22, 6.66346777103451300000e+001) (23, -9.52493587862058180000e+000) (24, -1.95684170200290420000e+001) (25, 1.82159504365051310000e+000) (26, 6.71405002368678260000e+000) (27, -1.95683901152767380000e+001) (28, -1.22289328180870920000e+001) (29, -6.95529871840606440000e+000) (30, 3.34248634222579710000e+001) (31, -1.96021607337704280000e+000) (32, 8.51468845279985050000e+000) (33, -2.86080342305323090000e+000) (11, 4.39145171037470570000e+000) (12, -7.58101900200758930000e+001) (13, -2.91436599293857190000e+000) (14, 4.39152628042556170000e+000) (15, -2.49799621517283250000e+000) (16, 7.41865886587057770000e+000) (17, 9.26962515010312570000e-001) (18, 2.29004871442731390000e+001) (19, -2.91424579393097490000e+000) (20, 7.53226013410634290000e+000) (21, -2.91428631445924810000e+000) (22, -1.81227812283150700000e+001) (23, 2.61020167550066920000e+000) (24, 3.51172733966429580000e+001) (25, 1.35746310178874230000e+001) (26, -1.21975889574425730000e+000) (27, 3.51172981242686720000e+001) (28, 2.29006075192620490000e+001) (29, 4.35206696402599920000e+000) (30, -6.51754224235311420000e+000) (31, 9.26977493377602160000e-001) (32, 7.53228607348459000000e+000) (33, 2.53181079862719120000e+000) (11, 2.06988388124562880000e+000) (12, 3.19937786762759340000e+001) (13, 2.08519877536134190000e+000) (14, 2.06984567359148610000e+000) (15, 5.06426879369384770000e+000) (16, 1.06288081431840650000e+000) (17, -2.06524513938861760000e-002) (18, 7.43616952234952060000e-001) (19, 2.08533384715889980000e+000) (20, -8.05571935604815610000e+000) (21, 2.08528228014080950000e+000) (22, 1.48414714708034870000e+001) (23, 8.17351929451831110000e-001) (24, 5.47068564219662170000e+000) (25, -8.81822315449169560000e-001) (26, 8.34935985195879300000e+000) (27, 5.47059957314777370000e+000) (28, 7.43561624287103930000e-001) (29, 1.19150782577093110000e+000) (30, 6.38781167848985640000e+000) (31, -2.06266477740941890000e-002) (32, -8.05572079907427780000e+000) (33, 1.45151590686454070000e+000) (11, 2.16755351288216100000e+000) (12, 4.86803670630919070000e+001) (13, 7.47326999137499830000e+000) (14, 2.16744083071412290000e+000) (15, 1.84894775285353430000e+001) (16, 6.31976479444434510000e+000) (17, 2.98999609609027580000e+000) (18, 2.02309568433679350000e+000) (19, 7.47329681567703830000e+000) (20, 9.81532110168277510000e+000) (21, 7.47330658504711920000e+000) (22, 7.82555346520699690000e+001) (23, 3.93036347787519060000e-001) (24, 2.02066033491653400000e+000) (25, 7.19216059242501980000e-001) (26, -1.45204445594202320000e+001) (27, 2.02062841726954100000e+000) (28, 2.02305007045629190000e+000) (29, 4.68139646997012630000e+000) (30, 1.65108476653823360000e+001) (31, 2.99003405234553110000e+000) (32, 9.81539156889571100000e+000) (33, 1.72931366830761650000e+000) (11, 1.91681711720042670000e+000) (12, 8.15623939427991300000e+000) (13, 4.60434978151785470000e-001) (14, 1.91676604795242470000e+000) (15, -1.97953168235249670000e+000) (16, 3.41958311084878230000e+001) (17, 1.76541055965404660000e+000) (18, 1.15471816327737940000e-001) (19, 4.60377302130543060000e-001) (20, 4.47310184781918800000e+000) (21, 4.60391214561856610000e-001) (22, -5.68732011602775070000e+000) (23, 1.43241967547185190000e+000) (24, -7.90767955329139680000e-001) (25, -1.77659573297191810000e-001) (26, 1.40325878237529580000e+000) (27, -7.90865282034284860000e-001) (28, 1.15479443779588520000e-001) (29, 1.84742812133849110000e+000) (30, -1.65269299426423570000e+000) (31, 1.76536107925358340000e+000) (32, 4.47309152535991310000e+000) (33, 8.29850774393627750000e-001) (11, 4.45927588687791050000e+000) (12, 8.01028173768892770000e+001) (13, 1.34730740983988160000e+000) (14, 4.45919777210965320000e+000) (15, 6.22225224487290300000e+001) (16, 9.92272208029723760000e+000) (17, -2.67988766485886990000e+001) (18, 4.61960753667941400000e+000) (19, 1.34731408197304940000e+000) (20, -2.84727934485330220000e+001) (21, 1.34726483286041420000e+000) (22, -4.58573950759714850000e+000) (23, 2.30619577881236080000e-001) (24, -1.49369038855726760000e+001) (25, -1.15120716018362460000e+002) (26, 9.52097278718030540000e+000) (27, -1.49368730489438090000e+001) (28, 4.61969233867845120000e+000) (29, 1.19007080486317080000e+001) (30, -7.61946199719659350000e+001) (31, -2.67988893543097180000e+001) (32, -2.84726874133506240000e+001) (33, 1.83749352443107950000e+000) (11, 1.66979312582554660000e+001) (12, 2.25788530589442220000e+001) (13, 7.04532790635177530000e+000) (14, 1.66979500578965770000e+001) (15, -7.61933105292125210000e+000) (16, 4.70721656780506240000e+001) (17, 3.06591013446110640000e+000) (18, 7.21310834989370080000e+000) (19, 7.04538919246671740000e+000) (20, 5.33693857020907550000e+000) (21, 7.04545905128590540000e+000) (22, 9.24616189351716290000e+001) (23, 1.97157332720873390000e+000) (24, -6.27557978169801880000e+000) (25, 4.13414805473183900000e+001) (26, 3.01990402076751470000e+000) (27, -6.27568269952639040000e+000) (28, 7.21313355014379360000e+000) (29, 1.52134293150608470000e+000) (30, 4.73602755977959970000e+001) (31, 3.06590385450933000000e+000) (32, 5.33706513968363530000e+000) (33, 6.10790615519165140000e-001) (11, -1.16549059606043530000e+003) (12, 6.13937252871135460000e+002) (13, 7.75553662315118460000e+002) (14, -1.16549060745385010000e+003) (15, 1.27710194231388350000e+003) (16, 6.32992313945893780000e+002) (17, 1.27552743975120800000e+003) (18, 5.09165648241543580000e+002) (19, 7.75553662315118460000e+002) (20, 1.13690898359512630000e+003) (21, 7.75553662315118460000e+002) (22, -5.18630481118326610000e+001) (23, 9.16425983802798670000e+002) (24, 1.32509604901736770000e+003) (25, 1.48195450337599600000e+003) (26, 3.76530686558677470000e+002) (27, 1.32509604901736770000e+003) (28, 5.09165757695753030000e+002) (29, -7.33679619186604740000e-001) (30, -1.37960946675882590000e+003) (31, 1.27552743975120800000e+003) (32, 1.13690898359512630000e+003) (33, 3.51930809905046700000e+000) (11, 3.51946294835123120000e+000) (12, 5.89048761607505330000e+001) (13, -6.47361354252735400000e+002) (14, 3.51932262231728820000e+000) (15, -1.53071367160809380000e+001) (16, -4.53112829411336690000e+001) (17, 2.68498722239370660000e+001) (18, -7.10270686940430810000e+001) (19, -6.47361340983882540000e+002) (20, 6.88909170473312660000e+002) (21, -6.47361355328724020000e+002) (22, 1.33705563082028140000e+002) (23, 8.62427128125745070000e-001) (24, 1.80159944584395400000e+001) (25, 5.19401667189075770000e+001) (26, -8.54625137941104640000e+000) (27, 1.80159670307823530000e+001) (28, -7.10270615291602350000e+001) (29, 4.69557751535829750000e+000) (30, -3.65539442657710860000e+001) (31, 2.68499306088976050000e+001) (32, 6.88909059666568170000e+002) (33, 2.78882641540726390000e+000) (11, 4.26573273254085010000e+000) (12, 5.57417286799343970000e+001) (13, 7.69013723489754390000e-001) (14, 4.26571961955537930000e+000) (15, 2.22400794544463750000e+000) (16, -1.37451102699930830000e-001) (17, 1.53431326460775930000e+000) (18, 1.59590739245902060000e+000) (19, 7.68875730431593630000e-001) (20, 1.22221280895208610000e+001) (21, 7.68999418869773410000e-001) (22, 8.93070624419702950000e+000) (23, -7.91152811613740630000e-002) (24, 3.18545257635814670000e+000) (25, 1.13084455648563700000e+001) (26, 7.56987012458132560000e+000) (27, 3.18547388998085700000e+000) (28, 1.59586215064552510000e+000) (29, 6.63717981476832010000e+000) (30, 9.33924554980258570000e+000) (31, 1.53431931830635770000e+000) (32, 1.22221360940637670000e+001) (33, 1.23488592687070380000e-001) (11, 1.34047077860093670000e+000) (12, 2.01337147690909430000e+001) (13, 3.34440693663652190000e+000) (14, 1.34036527136202290000e+000) (15, 1.28596682788237380000e+001) (16, 1.25233560501028070000e+003) (17, 5.98178723392081450000e-001) (18, 7.91897393254108910000e-001) (19, 3.34429510419301360000e+000) (20, 3.95754540022856460000e+000) (21, 3.34436314791543540000e+000) (22, -5.60338735484111350000e+000) (23, -2.95393519440309340000e-001) (24, 8.85653551436581670000e+000) (25, 2.96202414704877730000e+001) (26, 6.91586796928819890000e+001) (27, 8.85655710956808660000e+000) (28, 7.91831134464151990000e-001) (29, 2.13733831354723410000e+000) (30, 6.56958595721096740000e+000) (31, 5.98227178082922470000e-001) (32, 3.95753387105535740000e+000) (33, 1.18006264059267600000e+000) (11, -1.61662583126083950000e+001) (12, -1.27315555972818290000e+002) (13, 1.36873381560559650000e+001) (14, -1.61662351285679940000e+001) (15, -3.00407415516519830000e+001) (16, -8.84949266225142710000e+001) (17, 1.05804945280751800000e+001) (18, 2.57253448457940660000e+001) (19, 1.36872884695091200000e+001) (20, 9.69200211419314610000e+000) (21, 1.36872103547299490000e+001) (22, 1.45510251487684240000e+001) (23, 5.38892876063055850000e+000) (24, 7.18381798135834520000e+001) (25, 4.45568804316506190000e+001) (26, 6.25941111374776860000e+000) (27, 7.18380739594086890000e+001) (28, 2.57253343423307930000e+001) (29, 4.11096031561287760000e+000) (30, 2.33400008935446050000e+001) (31, 1.05804947342176110000e+001) (32, 9.69204272019936930000e+000) (33, 2.07414632594679030000e+000) (34, -6.14671996086189540000e-002) (35, 1.75068276968009110000e-001) (36, 1.01440983211740860000e-001) (37, 6.07816615829156470000e-001) (38, -3.64265349018643160000e-002) (39, -2.67178853008611050000e-001) (40, -2.80493111062455220000e-001) (41, 1.09662302810450290000e-001) (42, 9.80738408254684060000e-001) (43, 1.13415094771715570000e-002) (44, 6.66812034633635360000e-002) (45, 8.16800941986685740000e-001) (46, 3.36814869911143340000e-001) (47, -2.81328196743665990000e-001) (48, 1.85620291368164020000e-001) (49, 2.13563093069410260000e+000) (34, 1.61378230027472120000e-001) (35, -8.35711640164855110000e-002) (36, 4.79645220102602330000e-002) (37, 6.99316470708878920000e-002) (38, 1.85969855396731800000e-001) (39, 2.85876684746964870000e-001) (40, 1.13217933754391390000e-001) (41, 1.70743937291550410000e-001) (42, 8.30101142663108420000e-001) (43, 1.60455225170784000000e-001) (44, 7.34807137448018760000e-002) (45, 6.69548088874193810000e-001) (46, -5.67249412274056720000e-002) (47, 1.99863653026018550000e-001) (48, 3.66443634514808450000e-002) (49, 6.09349398699525420000e-001) (34, 1.22017350891750530000e-001) (35, -8.86019543529453780000e-003) (36, 3.02655111669800140000e-001) (37, 7.97004104199076910000e-003) (38, 2.92403978655875530000e-001) (39, 3.89208903249246400000e-001) (40, 1.49515009149583320000e-001) (41, 3.12367911119551980000e-001) (42, 9.57126224930812120000e-001) (43, 3.28039353584244300000e-001) (44, 1.65358017737797320000e-001) (45, 8.02614542181439570000e-001) (46, -4.35192376453370010000e-002) (47, 1.32396508602660700000e-001) (48, -6.25409023863539740000e-003) (49, 1.67012451785704810000e-001) 
